Language model created by QuickLM on Tue Apr 30 04:18:31 EDT 2024
Copyright (c) 1996-2010 Carnegie Mellon University and Alexander I. Rudnicky

The model is in standard ARPA format, designed by Doug Paul while he was at MITRE.

The code that was used to produce this language model is available in Open Source.
Please visit http://www.speech.cs.cmu.edu/tools/ for more information

The (fixed) discount mass is 0.5. The backoffs are computed using the ratio method.
This model based on a corpus of 14 sentences and 16 words

\data\
ngram 1=16
ngram 2=28
ngram 3=32

\1-grams:
-0.9542 </s> -0.3010
-0.9542 <s> -0.2499
-2.1004 ATM -0.2499
-1.7993 CASH -0.2499
-1.7993 CHANGE -0.2499
-1.1973 CLOSE -0.2499
-1.7993 DEPOSIT -0.2499
-1.7993 ENQUIRY -0.2499
-1.7993 FAST -0.2941
-1.7993 MINI -0.2941
-1.3222 OPEN -0.2576
-1.7993 PIN -0.2941
-2.1004 RECOGNITION -0.2499
-1.7993 STATEMENT -0.2499
-2.1004 VOICE -0.2976
-1.7993 WITHDRAW -0.2499

\2-grams:
-0.5441 <s> CLOSE 0.0000
-0.6690 <s> OPEN 0.0000
-0.3010 ATM </s> -0.3010
-0.3010 CASH </s> -0.3010
-0.3010 CHANGE </s> -0.3010
-1.2041 CLOSE ATM 0.0000
-1.2041 CLOSE DEPOSIT 0.0000
-1.2041 CLOSE ENQUIRY 0.0000
-1.2041 CLOSE FAST 0.0000
-1.2041 CLOSE MINI 0.0000
-1.2041 CLOSE PIN 0.0000
-1.2041 CLOSE VOICE 0.0000
-1.2041 CLOSE WITHDRAW 0.0000
-0.3010 DEPOSIT </s> -0.3010
-0.3010 ENQUIRY </s> -0.3010
-0.3010 FAST CASH 0.0000
-0.3010 MINI STATEMENT 0.0000
-1.0792 OPEN DEPOSIT 0.0000
-1.0792 OPEN ENQUIRY 0.0000
-1.0792 OPEN FAST 0.0000
-1.0792 OPEN MINI 0.0000
-1.0792 OPEN PIN 0.0000
-1.0792 OPEN WITHDRAW 0.0000
-0.3010 PIN CHANGE 0.0000
-0.3010 RECOGNITION </s> -0.3010
-0.3010 STATEMENT </s> -0.3010
-0.3010 VOICE RECOGNITION 0.0000
-0.3010 WITHDRAW </s> -0.3010

\3-grams:
-1.2041 <s> CLOSE ATM
-1.2041 <s> CLOSE DEPOSIT
-1.2041 <s> CLOSE ENQUIRY
-1.2041 <s> CLOSE FAST
-1.2041 <s> CLOSE MINI
-1.2041 <s> CLOSE PIN
-1.2041 <s> CLOSE VOICE
-1.2041 <s> CLOSE WITHDRAW
-1.0792 <s> OPEN DEPOSIT
-1.0792 <s> OPEN ENQUIRY
-1.0792 <s> OPEN FAST
-1.0792 <s> OPEN MINI
-1.0792 <s> OPEN PIN
-1.0792 <s> OPEN WITHDRAW
-0.3010 CLOSE ATM </s>
-0.3010 CLOSE DEPOSIT </s>
-0.3010 CLOSE ENQUIRY </s>
-0.3010 CLOSE FAST CASH
-0.3010 CLOSE MINI STATEMENT
-0.3010 CLOSE PIN CHANGE
-0.3010 CLOSE VOICE RECOGNITION
-0.3010 CLOSE WITHDRAW </s>
-0.3010 FAST CASH </s>
-0.3010 MINI STATEMENT </s>
-0.3010 OPEN DEPOSIT </s>
-0.3010 OPEN ENQUIRY </s>
-0.3010 OPEN FAST CASH
-0.3010 OPEN MINI STATEMENT
-0.3010 OPEN PIN CHANGE
-0.3010 OPEN WITHDRAW </s>
-0.3010 PIN CHANGE </s>
-0.3010 VOICE RECOGNITION </s>

\end\